<?xml version="1.0"?>
<opencv_storage>
<stage5>
  <maxWeakCount>5</maxWeakCount>
  <stageThreshold>-8.5268497467041016e-01</stageThreshold>
  <weakClassifiers>
    <_>
      <internalNodes>
        0 -1 146034 -1.4599889254895970e-05</internalNodes>
      <leafValues>
        6.1917805671691895e-01 -8.9411765336990356e-01</leafValues></_>
    <_>
      <internalNodes>
        0 -1 96959 -1.3955776921648066e-05</internalNodes>
      <leafValues>
        4.3676927685737610e-01 -7.9192304611206055e-01</leafValues></_>
    <_>
      <internalNodes>
        0 -1 119147 -4.4695031829178333e-04</internalNodes>
      <leafValues>
        -9.0247535705566406e-01 3.3707627654075623e-01</leafValues></_>
    <_>
      <internalNodes>
        0 -1 119930 -2.0819641940761358e-04</internalNodes>
      <leafValues>
        -9.2642593383789062e-01 2.3473362624645233e-01</leafValues></_>
    <_>
      <internalNodes>
        0 -1 137534 5.9584468544926494e-05</internalNodes>
      <leafValues>
        2.6154580712318420e-01 -9.0022999048233032e-01</leafValues></_></weakClassifiers></stage5>
</opencv_storage>
