<?xml version="1.0"?>
<opencv_storage>
<stage8>
  <maxWeakCount>6</maxWeakCount>
  <stageThreshold>-8.3894169330596924e-01</stageThreshold>
  <weakClassifiers>
    <_>
      <internalNodes>
        0 -1 123385 2.0532740745693445e-04</internalNodes>
      <leafValues>
        -3.7898090481758118e-01 7.1501708030700684e-01</leafValues></_>
    <_>
      <internalNodes>
        0 -1 85752 -4.0821486618369818e-04</internalNodes>
      <leafValues>
        6.5614324808120728e-01 -3.7316295504570007e-01</leafValues></_>
    <_>
      <internalNodes>
        0 -1 137827 5.1993964007124305e-05</internalNodes>
      <leafValues>
        3.1558573246002197e-01 -9.1917103528976440e-01</leafValues></_>
    <_>
      <internalNodes>
        0 -1 581 1.4156913757324219e-01</internalNodes>
      <leafValues>
        -3.2781812548637390e-01 8.3595150709152222e-01</leafValues></_>
    <_>
      <internalNodes>
        0 -1 131399 2.7481203433126211e-03</internalNodes>
      <leafValues>
        -3.3130198717117310e-01 8.7398326396942139e-01</leafValues></_>
    <_>
      <internalNodes>
        0 -1 137867 1.4498812379315495e-04</internalNodes>
      <leafValues>
        3.7226244807243347e-01 -8.3726143836975098e-01</leafValues></_></weakClassifiers></stage8>
</opencv_storage>
