<?xml version="1.0" encoding="UTF-8" standalone="yes"?>
<PMML xmlns="http://www.dmg.org/PMML-4_3" version="4.3">
	<Header>
		<Application name="JPMML-SkLearn" version="1.3.9"/>
		<Timestamp>2017-10-10T08:55:02Z</Timestamp>
	</Header>
	<MiningBuildTask>
		<Extension>PMMLPipeline(steps=[('mapper', DataFrameMapper(default=False, df_out=False,
        features=[(['sepal_length', 'sepal_width', 'petal_length', 'petal_width'], [ContinuousDomain(), Imputer(axis=0, copy=True, missing_values='NaN', strategy='mean', verbose=0)])],
        input_df=False, sparse=False)),
       ('pca', PCA(copy=True, iterated_power='auto', n_components=3, random_state=None,
  svd_solver='auto', tol=0.0, whiten=False)),
       ('selector', SelectKBest(k=2, score_func=&lt;function f_classif at 0x10cd57e60&gt;)),
       ('classifier', LogisticRegression(C=1.0, class_weight=None, dual=False, fit_intercept=True,
          intercept_scaling=1, max_iter=100, multi_class='ovr', n_jobs=1,
          penalty='l2', random_state=None, solver='liblinear', tol=0.0001,
          verbose=0, warm_start=False))])</Extension>
	</MiningBuildTask>
	<DataDictionary>
		<DataField name="species" optype="categorical" dataType="string">
			<Value value="setosa"/>
			<Value value="versicolor"/>
			<Value value="virginica"/>
		</DataField>
		<DataField name="sepal_length" optype="continuous" dataType="double">
			<Interval closure="closedClosed" leftMargin="4.3" rightMargin="7.9"/>
		</DataField>
		<DataField name="sepal_width" optype="continuous" dataType="double">
			<Interval closure="closedClosed" leftMargin="2.0" rightMargin="4.4"/>
		</DataField>
		<DataField name="petal_length" optype="continuous" dataType="double">
			<Interval closure="closedClosed" leftMargin="1.0" rightMargin="6.9"/>
		</DataField>
		<DataField name="petal_width" optype="continuous" dataType="double">
			<Interval closure="closedClosed" leftMargin="0.1" rightMargin="2.5"/>
		</DataField>
	</DataDictionary>
	<TransformationDictionary>
		<DerivedField name="pca@1[0]" optype="continuous" dataType="double">
			<Apply function="sum">
				<Apply function="*">
					<Apply function="-">
						<FieldRef field="sepal_length"/>
						<Constant dataType="double">5.843333333333334</Constant>
					</Apply>
					<Constant dataType="double">0.3615896773814496</Constant>
				</Apply>
				<Apply function="*">
					<Apply function="-">
						<FieldRef field="sepal_width"/>
						<Constant dataType="double">3.0540000000000003</Constant>
					</Apply>
					<Constant dataType="double">-0.08226888989221424</Constant>
				</Apply>
				<Apply function="*">
					<Apply function="-">
						<FieldRef field="petal_length"/>
						<Constant dataType="double">3.758666666666666</Constant>
					</Apply>
					<Constant dataType="double">0.8565721052905281</Constant>
				</Apply>
				<Apply function="*">
					<Apply function="-">
						<FieldRef field="petal_width"/>
						<Constant dataType="double">1.1986666666666668</Constant>
					</Apply>
					<Constant dataType="double">0.3588439262482156</Constant>
				</Apply>
			</Apply>
		</DerivedField>
		<DerivedField name="pca@1[1]" optype="continuous" dataType="double">
			<Apply function="sum">
				<Apply function="*">
					<Apply function="-">
						<FieldRef field="sepal_length"/>
						<Constant dataType="double">5.843333333333334</Constant>
					</Apply>
					<Constant dataType="double">0.6565398832858317</Constant>
				</Apply>
				<Apply function="*">
					<Apply function="-">
						<FieldRef field="sepal_width"/>
						<Constant dataType="double">3.0540000000000003</Constant>
					</Apply>
					<Constant dataType="double">0.7297123713264964</Constant>
				</Apply>
				<Apply function="*">
					<Apply function="-">
						<FieldRef field="petal_length"/>
						<Constant dataType="double">3.758666666666666</Constant>
					</Apply>
					<Constant dataType="double">-0.17576740342865457</Constant>
				</Apply>
				<Apply function="*">
					<Apply function="-">
						<FieldRef field="petal_width"/>
						<Constant dataType="double">1.1986666666666668</Constant>
					</Apply>
					<Constant dataType="double">-0.07470647013503282</Constant>
				</Apply>
			</Apply>
		</DerivedField>
	</TransformationDictionary>
	<RegressionModel functionName="classification" normalizationMethod="logit">
		<MiningSchema>
			<MiningField name="species" usageType="target"/>
			<MiningField name="sepal_length" missingValueReplacement="5.843333333333334" missingValueTreatment="asMean"/>
			<MiningField name="sepal_width" missingValueReplacement="3.0540000000000003" missingValueTreatment="asMean"/>
			<MiningField name="petal_length" missingValueReplacement="3.758666666666666" missingValueTreatment="asMean"/>
			<MiningField name="petal_width" missingValueReplacement="1.1986666666666668" missingValueTreatment="asMean"/>
		</MiningSchema>
		<Output>
			<OutputField name="probability(setosa)" optype="continuous" dataType="double" feature="probability" value="setosa"/>
			<OutputField name="probability(versicolor)" optype="continuous" dataType="double" feature="probability" value="versicolor"/>
			<OutputField name="probability(virginica)" optype="continuous" dataType="double" feature="probability" value="virginica"/>
		</Output>
		<ModelStats>
			<UnivariateStats field="sepal_length">
				<Counts totalFreq="150.0" missingFreq="0.0" invalidFreq="0.0"/>
				<NumericInfo minimum="4.3" maximum="7.9" mean="5.843333333333334" standardDeviation="0.8253012917851409" median="5.8" interQuartileRange="1.3000000000000007"/>
			</UnivariateStats>
			<UnivariateStats field="sepal_width">
				<Counts totalFreq="150.0" missingFreq="0.0" invalidFreq="0.0"/>
				<NumericInfo minimum="2.0" maximum="4.4" mean="3.0540000000000003" standardDeviation="0.4321465800705435" median="3.0" interQuartileRange="0.5"/>
			</UnivariateStats>
			<UnivariateStats field="petal_length">
				<Counts totalFreq="150.0" missingFreq="0.0" invalidFreq="0.0"/>
				<NumericInfo minimum="1.0" maximum="6.9" mean="3.758666666666666" standardDeviation="1.7585291834055212" median="4.35" interQuartileRange="3.4999999999999996"/>
			</UnivariateStats>
			<UnivariateStats field="petal_width">
				<Counts totalFreq="150.0" missingFreq="0.0" invalidFreq="0.0"/>
				<NumericInfo minimum="0.1" maximum="2.5" mean="1.1986666666666668" standardDeviation="0.7606126185881716" median="1.3" interQuartileRange="1.5"/>
			</UnivariateStats>
		</ModelStats>
		<RegressionTable intercept="-1.860489749633501" targetCategory="setosa">
			<NumericPredictor name="pca@1[0]" coefficient="-2.2228785851546835"/>
			<NumericPredictor name="pca@1[1]" coefficient="1.2729473311510842"/>
		</RegressionTable>
		<RegressionTable intercept="-0.806024409635066" targetCategory="versicolor">
			<NumericPredictor name="pca@1[0]" coefficient="0.2420161221514359"/>
			<NumericPredictor name="pca@1[1]" coefficient="-1.592115233882027"/>
		</RegressionTable>
		<RegressionTable intercept="-3.1130588502426706" targetCategory="virginica">
			<NumericPredictor name="pca@1[0]" coefficient="2.5067169552862456"/>
			<NumericPredictor name="pca@1[1]" coefficient="-0.9893791208167898"/>
		</RegressionTable>
	</RegressionModel>
</PMML>
